svm_type c_svc
kernel_type linear
nr_class 2
total_sv 223
rho -1.0000014799897228
label 0 1
nr_sv 112 111
SV
1.0E-6 1:-1.0 2:-1.0 3:-1.0 
6.819749296971823E-7 1:-1.0 2:-1.0 3:-1.0 
1.0E-6 1:48.7796 2:26.4815 3:37.4274 
1.0E-6 1:54.0859 2:30.0652 3:47.2774 
1.0E-6 1:58.5275 2:41.7719 3:71.6117 
1.0E-6 1:58.8853 2:41.7719 3:71.9658 
1.0E-6 1:60.4107 2:46.8579 3:78.8785 
1.0E-6 1:60.7622 2:48.5162 3:82.121 
1.0E-6 1:61.5728 2:50.7606 3:85.8157 
1.0E-6 1:61.349 2:52.0877 3:87.5909 
1.0E-6 1:61.349 2:52.025 3:87.5909 
1.0E-6 1:61.3657 2:52.1989 3:87.7365 
1.0E-6 1:61.5248 2:52.0924 3:87.9878 
1.0E-6 1:61.5248 2:52.0924 3:88.0257 
1.0E-6 1:61.6441 2:51.5983 3:87.6985 
1.0E-6 1:61.5794 2:51.8904 3:87.8061 
1.0E-6 1:61.5794 2:52.0707 3:88.1985 
1.0E-6 1:61.1683 2:52.0971 3:88.4011 
1.0E-6 1:61.1683 2:52.0971 3:88.3148 
1.0E-6 1:61.0046 2:51.9633 3:88.2472 
1.0E-6 1:61.3366 2:51.3846 3:88.2998 
1.0E-6 1:61.3366 2:51.3846 3:88.2998 
1.0E-6 1:61.5371 2:51.6961 3:87.9939 
1.0E-6 1:61.3166 2:52.5087 3:88.0972 
1.0E-6 1:61.3166 2:52.5087 3:88.0972 
1.0E-6 1:61.3166 2:52.5087 3:88.0972 
1.0E-6 1:61.3166 2:52.5087 3:88.0972 
1.0E-6 1:61.2977 2:52.9554 3:87.8012 
1.0E-6 1:61.3725 2:52.6725 3:87.6705 
1.0E-6 1:61.5657 2:53.0958 3:87.4979 
1.0E-6 1:61.5657 2:53.0958 3:87.4979 
1.0E-6 1:61.4715 2:53.1304 3:88.0479 
1.0E-6 1:61.4852 2:52.5312 3:88.0351 
1.0E-6 1:61.4852 2:52.5312 3:88.0351 
1.0E-6 1:61.887 2:52.6526 3:87.8691 
1.0E-6 1:61.5139 2:52.9483 3:87.8691 
1.0E-6 1:61.5029 2:52.9483 3:87.9197 
1.0E-6 1:61.5002 2:53.3795 3:88.025 
1.0E-6 1:61.5002 2:53.3795 3:88.025 
1.0E-6 1:61.3988 2:52.7811 3:88.0655 
1.0E-6 1:61.3988 2:52.7811 3:88.0655 
1.0E-6 1:61.0607 2:53.7862 3:88.0338 
1.0E-6 1:60.9222 2:53.6302 3:88.1181 
1.0E-6 1:60.8224 2:53.3506 3:88.3226 
1.0E-6 1:60.9548 2:53.1878 3:88.4875 
1.0E-6 1:60.9548 2:53.1878 3:88.2134 
1.0E-6 1:60.769 2:54.0887 3:88.1985 
1.0E-6 1:60.762 2:54.0887 3:88.1985 
1.0E-6 1:60.7595 2:53.9408 3:88.3686 
1.0E-6 1:60.8471 2:53.1358 3:88.4401 
1.0E-6 1:60.8471 2:53.1358 3:88.3567 
1.0E-6 1:60.8471 2:53.1358 3:88.3567 
1.0E-6 1:60.8315 2:53.1358 3:88.3567 
1.0E-6 1:60.7959 2:54.4209 3:88.3567 
1.0E-6 1:60.8424 2:54.4477 3:88.4284 
1.0E-6 1:59.9535 2:54.5328 3:88.6087 
1.0E-6 1:60.6543 2:54.5455 3:89.2289 
1.0E-6 1:60.9255 2:54.5455 3:89.1371 
1.0E-6 1:60.4639 2:54.0 3:89.1709 
1.0E-6 1:60.4639 2:54.0 3:89.4319 
1.0E-6 1:60.6347 2:54.1348 3:89.633 
1.0E-6 1:59.7964 2:53.9771 3:90.0287 
1.0E-6 1:59.7964 2:53.9771 3:89.907 
1.0E-6 1:60.3642 2:53.8675 3:89.7566 
1.0E-6 1:60.3642 2:53.7926 3:89.7566 
1.0E-6 1:60.3353 2:53.3589 3:90.0 
1.0E-6 1:60.3353 2:53.3589 3:90.0 
1.0E-6 1:60.1748 2:53.8448 3:89.7952 
1.0E-6 1:60.1748 2:53.8448 3:89.7935 
1.0E-6 1:60.1034 2:54.1892 3:89.6937 
1.0E-6 1:60.1034 2:54.0296 3:89.6937 
1.0E-6 1:59.1454 2:54.1572 3:90.1473 
1.0E-6 1:59.5213 2:53.9774 3:89.4104 
1.0E-6 1:59.5213 2:53.9774 3:89.4104 
1.0E-6 1:59.8787 2:53.913 3:89.8222 
1.0E-6 1:59.8465 2:53.8368 3:89.8747 
1.0E-6 1:59.8465 2:53.8368 3:89.8747 
1.0E-6 1:59.6892 2:54.063 3:89.5254 
1.0E-6 1:59.7537 2:53.8837 3:89.5932 
1.0E-6 1:59.7787 2:53.9359 3:89.4219 
1.0E-6 1:59.2288 2:53.9359 3:90.1101 
1.0E-6 1:59.0073 2:53.9091 3:89.5307 
1.0E-6 1:59.3544 2:53.9091 3:89.4951 
1.0E-6 1:59.7183 2:53.8582 3:89.3105 
1.0E-6 1:59.636 2:53.1288 3:89.4817 
1.0E-6 1:59.7039 2:53.1288 3:89.3819 
1.0E-6 1:59.9464 2:53.7992 3:89.2276 
1.0E-6 1:59.7822 2:53.4855 3:89.143 
1.0E-6 1:59.7822 2:53.4855 3:89.143 
1.0E-6 1:59.7822 2:53.4855 3:89.143 
1.0E-6 1:59.7822 2:53.4855 3:89.143 
1.0E-6 1:58.7815 2:53.9373 3:89.5816 
1.0E-6 1:59.1924 2:53.7751 3:89.2954 
1.0E-6 1:59.6432 2:52.9864 3:89.3559 
1.0E-6 1:60.0788 2:50.0783 3:87.4515 
1.0E-6 1:60.8284 2:50.7045 3:87.6754 
1.0E-6 1:60.8284 2:50.7045 3:87.6754 
1.0E-6 1:60.8284 2:50.7045 3:87.6754 
1.0E-6 1:60.9364 2:51.1749 3:87.7489 
1.0E-6 1:60.7308 2:53.3553 3:88.4765 
3.180250703028176E-7 1:60.6844 2:52.8187 3:88.5251 
1.0E-6 1:60.7557 2:53.1646 3:88.6245 
1.0E-6 1:60.3626 2:53.4213 3:88.7165 
1.0E-6 1:60.3445 2:53.4213 3:89.1924 
1.0E-6 1:60.5651 2:53.0097 3:88.7146 
1.0E-6 1:59.2175 2:50.851 3:88.3137 
1.0E-6 1:59.3684 2:50.8077 3:88.1956 
1.0E-6 1:59.3684 2:50.9382 3:88.1956 
1.0E-6 1:58.5232 2:50.9382 3:88.0796 
1.0E-6 1:58.5232 2:50.625 3:88.0796 
1.0E-6 1:59.0717 2:50.4253 3:87.6939 
1.0E-6 1:45.9022 2:26.9445 3:42.845 
-1.0E-6 1:57.8557 2:46.7753 3:77.2998 
-1.0E-6 1:58.5529 2:46.7753 3:77.2998 
-1.0E-6 1:58.4397 2:47.327 3:76.9388 
-1.0E-6 1:58.4397 2:47.327 3:76.9388 
-1.0E-6 1:54.8963 2:46.7779 3:77.3299 
-1.0E-6 1:54.8868 2:46.529 3:77.1784 
-1.0E-6 1:55.5297 2:46.835 3:77.9269 
-1.0E-6 1:56.7132 2:47.3404 3:77.5707 
-1.0E-6 1:58.4052 2:50.4911 3:81.3749 
-1.0E-6 1:55.9082 2:46.6282 3:75.1066 
-1.0E-6 1:58.4011 2:48.5209 3:80.9952 
-1.0E-6 1:58.8131 2:49.0467 3:82.0469 
-1.0E-6 1:59.1711 2:49.7026 3:82.7422 
-1.0E-6 1:59.1711 2:49.7026 3:82.7422 
-1.0E-6 1:58.3616 2:50.7175 3:83.7733 
-1.0E-6 1:58.2055 2:50.7528 3:84.0217 
-1.0E-6 1:59.1404 2:49.5804 3:84.3856 
-1.0E-6 1:59.1039 2:49.86 3:84.6297 
-1.0E-6 1:58.9611 2:49.8078 3:84.4013 
-1.0E-6 1:59.4532 2:50.6885 3:84.6934 
-1.0E-6 1:59.8428 2:50.8534 3:84.4711 
-1.0E-6 1:60.0535 2:52.0097 3:84.7469 
-1.0E-6 1:60.1535 2:52.0097 3:84.4956 
-1.0E-6 1:59.6823 2:51.3004 3:84.1267 
-1.0E-6 1:59.7496 2:51.5114 3:84.1722 
-1.0E-6 1:59.7496 2:51.5114 3:84.1383 
-1.0E-6 1:59.7031 2:51.0661 3:84.5424 
-1.0E-6 1:59.3951 2:50.7967 3:84.8587 
-1.0E-6 1:59.2328 2:49.3141 3:84.5881 
-1.0E-6 1:59.9573 2:49.5265 3:84.6634 
-1.0E-6 1:59.7933 2:49.9123 3:84.2105 
-1.0E-6 1:59.7933 2:49.9123 3:84.2105 
-1.0E-6 1:59.7576 2:50.0878 3:84.0844 
-1.0E-6 1:59.7537 2:50.5531 3:84.0994 
-1.0E-6 1:59.7504 2:50.4212 3:84.0771 
-1.0E-6 1:59.753 2:50.8593 3:84.3316 
-1.0E-6 1:60.5038 2:50.8593 3:84.9273 
-1.0E-6 1:60.3544 2:50.456 3:84.9375 
-1.0E-6 1:60.4044 2:50.456 3:84.9375 
-1.0E-6 1:60.3513 2:50.377 3:84.4644 
-1.0E-6 1:60.3331 2:50.5248 3:85.0847 
-1.0E-6 1:60.1611 2:49.7204 3:85.1507 
-1.0E-6 1:60.1325 2:49.6676 3:85.0178 
-1.0E-6 1:58.794 2:50.9619 3:84.2516 
-1.0E-6 1:58.3363 2:51.3981 3:84.6673 
-1.0E-6 1:58.6879 2:52.5728 3:84.87 
-1.0E-6 1:58.6879 2:52.5728 3:84.87 
-1.0E-6 1:58.8498 2:51.993 3:84.8362 
-1.0E-6 1:58.8078 2:51.6946 3:85.0582 
-1.0E-6 1:58.8078 2:51.6946 3:85.0582 
-1.0E-6 1:59.7903 2:51.7489 3:84.7844 
-1.0E-6 1:59.7619 2:51.7235 3:84.8352 
-1.0E-6 1:59.8722 2:51.5125 3:84.8183 
-1.0E-6 1:59.753 2:48.8495 3:81.1767 
-1.0E-6 1:60.5075 2:51.5178 3:86.625 
-1.0E-6 1:61.0009 2:51.5178 3:86.625 
-1.0E-6 1:61.0009 2:51.5252 3:86.5911 
-1.0E-6 1:60.875 2:52.8618 3:87.6939 
-1.0E-6 1:60.5568 2:54.6211 3:88.5825 
-1.0E-6 1:60.5568 2:54.6259 3:88.5937 
-1.0E-6 1:60.3929 2:54.4475 3:88.9716 
-1.0E-6 1:60.5541 2:54.4475 3:89.3153 
-1.0E-6 1:60.3104 2:53.7926 3:89.8918 
-1.0E-6 1:58.768 2:53.1458 3:88.5332 
-1.0E-6 1:58.9397 2:52.898 3:88.4244 
-1.0E-6 1:59.5665 2:52.898 3:88.4244 
-1.0E-6 1:59.517 2:52.6444 3:88.2433 
-1.0E-6 1:59.7728 2:52.0524 3:88.2791 
-1.0E-6 1:60.2412 2:51.9564 3:87.1001 
-1.0E-6 1:60.2412 2:51.9564 3:87.1001 
-1.0E-6 1:59.6366 2:52.8413 3:86.9756 
-1.0E-6 1:59.4114 2:50.8607 3:87.462 
-1.0E-6 1:59.6164 2:51.3391 3:87.2847 
-1.0E-6 1:59.8143 2:52.2357 3:88.2383 
-1.0E-6 1:60.0143 2:52.2049 3:88.0723 
-1.0E-6 1:60.3393 2:51.9625 3:88.0615 
-1.0E-6 1:60.282 2:52.9136 3:87.9622 
-1.0E-6 1:59.7284 2:52.9055 3:87.8358 
-1.0E-6 1:60.1427 2:52.5421 3:88.5835 
-1.0E-6 1:60.5774 2:52.2305 3:88.5835 
-1.0E-6 1:60.1212 2:52.6115 3:88.8345 
-1.0E-6 1:60.2637 2:52.2487 3:88.6129 
-1.0E-6 1:60.2637 2:53.1158 3:88.1479 
-1.0E-6 1:60.2093 2:52.3752 3:88.8383 
-1.0E-6 1:59.929 2:52.3752 3:89.2749 
-1.0E-6 1:59.6746 2:52.9146 3:88.8983 
-1.0E-6 1:59.6746 2:52.9146 3:88.8983 
-1.0E-6 1:59.547 2:52.638 3:88.57 
-1.0E-6 1:59.3196 2:52.8135 3:88.1001 
-1.0E-6 1:59.008 2:52.1981 3:88.7143 
-1.0E-6 1:59.008 2:52.1981 3:88.7143 
-1.0E-6 1:59.1094 2:52.2487 3:88.3953 
-1.0E-6 1:59.1094 2:52.2487 3:88.5005 
-1.0E-6 1:59.1094 2:51.8917 3:88.5005 
-1.0E-6 1:58.7383 2:51.8917 3:88.1867 
-1.0E-6 1:59.05 2:51.0679 3:88.0351 
-1.0E-6 1:59.2247 2:51.4931 3:88.2948 
-1.0E-6 1:59.0717 2:50.625 3:87.6939 
-1.0E-6 1:59.0717 2:50.4253 3:87.6939 
-1.0E-6 1:59.0717 2:50.4253 3:87.6939 
-1.0E-6 1:59.0097 2:50.4935 3:87.4178 
-1.0E-6 1:59.4136 2:50.3375 3:87.5253 
-1.0E-6 1:58.963 2:50.9607 3:86.9793 
-1.0E-6 1:59.1689 2:50.9607 3:87.2197 
-1.0E-6 1:59.1689 2:51.1157 3:87.2197 
-1.0E-6 1:59.1689 2:51.1157 3:87.2197 
-1.0E-6 1:59.37 2:50.2334 3:87.1169 
-1.0E-6 1:59.37 2:50.2334 3:87.2262 
-1.0E-6 1:59.9752 2:50.8296 3:87.0826 
-1.0E-6 1:59.1507 2:50.7599 3:86.7902 
-1.0E-6 1:59.1507 2:50.7599 3:86.7902 
