svm_type c_svc
kernel_type rbf
gamma 0.3333333333333333
nr_class 2
total_sv 290
rho -6.938153294023478
label 0 1
nr_sv 185 105
SV
6.21887612488039 1:58.7464 2:47.8571 3:76.5153 
37.28262421519465 1:55.9603 2:46.6363 3:75.773 
412.5370454867043 1:56.5367 2:47.3444 3:77.6836 
130.67169326893708 1:57.5424 2:47.6165 3:77.4297 
35.77629141271504 1:57.0808 2:46.9238 3:77.6215 
62.86594027190361 1:57.7083 2:46.9702 3:77.7363 
63.22994759467703 1:57.909 2:46.4998 3:77.5701 
1000.0 1:58.5529 2:46.7753 3:77.2998 
182.51732833746212 1:58.3618 2:46.9116 3:76.8629 
889.8909950609423 1:54.8882 2:46.7507 3:77.2031 
427.34526727222635 1:54.8963 2:46.5199 3:77.3299 
72.1202420462221 1:54.6667 2:46.5199 3:76.9257 
374.5573296489918 1:54.8868 2:46.529 3:77.1784 
70.86081617159692 1:55.4638 2:47.2088 3:78.2262 
37.82327961598462 1:54.503 2:46.6904 3:77.3569 
361.1710657829908 1:55.2145 2:46.7544 3:77.7853 
723.7319777913181 1:55.5297 2:46.835 3:77.859 
285.72198034070294 1:56.7539 2:47.1852 3:77.5704 
251.87864186431818 1:56.7132 2:47.3059 3:77.4259 
44.10477383535188 1:58.0622 2:50.683 3:81.1083 
97.08447990637194 1:58.4247 2:50.7895 3:81.3533 
4.083026198538907 1:58.6436 2:50.6489 3:80.7967 
26.05243185460652 1:58.1462 2:50.518 3:81.432 
754.6736594060551 1:58.4052 2:50.4911 3:81.3749 
19.607973513863808 1:57.7305 2:47.3196 3:76.7181 
39.554529301853826 1:56.087 2:46.6912 3:74.6976 
17.64704823403167 1:55.5815 2:46.3125 3:74.6162 
3.255007273489106 1:58.0444 2:48.271 3:80.4015 
19.50249668104732 1:58.0444 2:48.271 3:80.4015 
707.4173320919951 1:58.4011 2:48.5225 3:81.1661 
435.31062556102415 1:58.6384 2:48.7489 3:80.9589 
42.82678530516351 1:58.1284 2:47.9874 3:80.8529 
223.05452428204535 1:58.7778 2:49.3266 3:82.104 
241.48478389582974 1:59.1246 2:49.7114 3:82.5416 
289.435989631902 1:59.1246 2:49.7114 3:82.5416 
986.8043892411379 1:59.1246 2:49.7114 3:82.5416 
415.5869578940599 1:58.8787 2:49.2825 3:82.7785 
244.19543947790615 1:58.5275 2:50.8306 3:83.649 
173.92917145936954 1:58.2055 2:50.6482 3:84.0217 
933.4787186348553 1:58.2172 2:50.7528 3:83.9316 
1000.0 1:58.3065 2:50.8925 3:84.0332 
644.1683080726408 1:59.0357 2:50.385 3:84.5309 
34.944492479836725 1:59.7467 2:50.3325 3:84.5465 
136.65381458861998 1:59.7467 2:50.3325 3:84.5465 
217.32089594248774 1:59.7467 2:50.3325 3:84.5465 
53.12373252730866 1:59.7467 2:50.3325 3:84.5465 
690.9591961194368 1:59.7467 2:50.3325 3:84.5465 
187.8336469711193 1:59.3426 2:49.9301 3:84.3703 
1000.0 1:59.1632 2:50.7754 3:84.618 
1000.0 1:59.4817 2:49.9738 3:84.0352 
959.1279447587783 1:59.0023 2:49.9738 3:84.5504 
1000.0 1:59.7391 2:50.6532 3:84.2239 
298.8631636640624 1:59.8751 2:50.8534 3:84.1901 
1.576532608138956 1:59.9572 2:51.1486 3:84.1117 
1000.0 1:59.7396 2:51.2187 3:84.2852 
1000.0 1:59.7896 2:51.2798 3:84.449 
1000.0 1:59.7752 2:51.2798 3:84.3111 
364.40873815055573 1:59.6466 2:51.2276 3:84.4215 
741.4265999926209 1:60.0535 2:52.0202 3:84.4644 
1000.0 1:60.0572 2:51.9338 3:84.403 
221.04126037578635 1:60.2967 2:51.9951 3:84.403 
357.9978371114942 1:59.682 2:51.2744 3:83.8923 
221.2883511856722 1:59.1504 2:51.1896 3:83.7911 
197.63629465044434 1:59.2784 2:49.2527 3:84.4411 
457.6665845179357 1:60.0249 2:49.7629 3:84.7543 
885.4442915220683 1:58.9821 2:49.4384 3:84.6115 
1000.0 1:60.0178 2:49.5265 3:84.9461 
145.15227637716083 1:59.1687 2:49.3942 3:84.1066 
136.89411078381985 1:59.7933 2:49.3942 3:84.1066 
489.63268102855545 1:59.9002 2:50.0878 3:83.829 
323.3384488721638 1:59.4966 2:49.9736 3:83.494 
873.9891454491761 1:59.7537 2:50.5531 3:84.0994 
998.6448873753121 1:60.4651 2:50.3329 3:84.6791 
783.6038077099951 1:59.375 2:49.9385 3:84.1251 
624.7819264499734 1:59.86 2:50.0965 3:84.0352 
1000.0 1:60.2686 2:50.7267 3:85.0847 
1000.0 1:60.3331 2:50.5248 3:84.8372 
1000.0 1:60.3331 2:50.5248 3:84.8372 
1000.0 1:60.3331 2:50.5248 3:84.8372 
1000.0 1:60.0251 2:49.7029 3:84.9594 
1000.0 1:60.129 2:49.7461 3:84.8603 
986.6732395333371 1:59.2865 2:49.475 3:84.4746 
164.15446029617553 1:58.9215 2:51.5273 3:84.9619 
584.0820570584577 1:58.7159 2:51.5014 3:84.9585 
1000.0 1:58.6879 2:52.5728 3:84.87 
1000.0 1:58.6879 2:52.5728 3:84.87 
791.8994068540258 1:58.7921 2:51.8091 3:84.7297 
1000.0 1:58.8078 2:51.6946 3:85.0582 
171.12843647254067 1:58.8078 2:51.136 3:85.0582 
104.30538656202415 1:58.2324 2:50.9615 3:84.4673 
284.5988652543711 1:59.531 2:51.6687 3:84.8208 
902.0884834704415 1:59.9361 2:51.4696 3:84.9484 
407.238717302973 1:60.0107 2:51.7084 3:85.2682 
0.05887747639929533 1:60.0107 2:51.7084 3:85.2682 
110.62606388058774 1:59.5124 2:52.535 3:85.6126 
318.6397206511004 1:59.7333 2:52.1823 3:84.9245 
388.09690768629014 1:59.7333 2:52.1823 3:84.9245 
1000.0 1:59.6582 2:51.413 3:84.6624 
1000.0 1:59.7685 2:51.413 3:84.4301 
55.69433966340598 1:59.2044 2:51.9979 3:84.8906 
334.0093471119176 1:59.6048 2:51.7308 3:84.5749 
4.280080701842243 1:59.2117 2:51.4085 3:83.4265 
100.91168839910813 1:59.9964 2:48.7175 3:81.1959 
96.01851220076189 1:59.975 2:48.8495 3:81.7038 
103.4032944369938 1:59.9571 2:49.8863 3:83.5993 
116.11434763690902 1:60.5071 2:51.1612 3:85.4604 
641.9246820312032 1:61.1895 2:51.4136 3:86.0937 
74.20423594315544 1:61.1895 2:51.4136 3:86.0937 
186.2100124890352 1:61.0457 2:51.4485 3:86.8256 
1000.0 1:60.7041 2:51.4639 3:86.9484 
331.81312397146803 1:60.7041 2:51.4639 3:86.9484 
332.74938684405834 1:61.1746 2:52.0877 3:86.9528 
681.2021579589707 1:60.7359 2:52.088 3:88.5401 
513.7987745855811 1:60.8319 2:52.9554 3:87.6749 
203.6079642059384 1:60.5639 2:54.0807 3:88.2115 
91.25950024624656 1:59.9535 2:54.5328 3:88.6087 
1000.0 1:60.6543 2:54.5455 3:89.2289 
446.4902680166296 1:60.3642 2:53.8675 3:89.7566 
47.28694042075038 1:60.3353 2:53.3589 3:90.0 
112.71206239427562 1:60.3353 2:53.3589 3:90.0 
556.0110075342914 1:60.1748 2:53.8448 3:89.7952 
117.07963039473033 1:60.1034 2:54.1892 3:89.6937 
58.19628435585289 1:59.9464 2:53.7992 3:89.2276 
911.9753193231843 1:59.5234 2:53.0366 3:88.4296 
884.5489063385056 1:59.5234 2:53.0366 3:88.4296 
1000.0 1:59.7975 2:52.0 3:88.1666 
186.59439125689536 1:59.7654 2:52.9237 3:87.7392 
53.46637727035686 1:59.7654 2:52.9237 3:87.7392 
932.7141157569998 1:58.9333 2:53.1904 3:88.5637 
323.26208630454937 1:59.0085 2:53.0641 3:88.2941 
1000.0 1:60.1773 2:52.4713 3:88.3457 
1000.0 1:60.0638 2:52.7222 3:88.1049 
140.28548431611637 1:59.2625 2:52.5668 3:88.7443 
181.39093230182633 1:60.1384 2:52.2191 3:87.2016 
357.98243003500255 1:60.1384 2:52.2191 3:87.2016 
1000.0 1:60.3231 2:52.0949 3:86.9926 
151.88869087563958 1:60.4585 2:52.3719 3:86.7411 
904.9309293966099 1:59.4229 2:52.8913 3:87.2992 
200.59151049704852 1:59.7609 2:52.872 3:87.0586 
499.3825653995466 1:60.0753 2:51.5299 3:86.7555 
146.39762138227005 1:59.1968 2:51.5641 3:87.4852 
1000.0 1:59.2466 2:50.9132 3:87.8226 
1000.0 1:58.9882 2:50.8607 3:87.462 
1000.0 1:59.4114 2:50.8607 3:87.4515 
21.452365400973274 1:60.0788 2:50.0783 3:87.4515 
1000.0 1:59.2865 2:51.3391 3:87.2847 
1000.0 1:60.5188 2:51.3307 3:86.7309 
91.12923351848902 1:60.3146 2:51.1219 3:86.7264 
689.0667263984581 1:59.6278 2:51.5832 3:87.3944 
125.2128372961808 1:60.7117 2:52.9596 3:87.5951 
622.4041639485372 1:60.6423 2:52.5113 3:88.516 
520.7052802522372 1:59.8143 2:52.2357 3:87.9177 
1000.0 1:59.8143 2:52.2357 3:88.2383 
423.7214498700309 1:60.25 2:51.708 3:88.3733 
811.1963728563957 1:60.3716 2:52.2049 3:88.0993 
271.01029421561907 1:60.3932 2:52.8236 3:87.8737 
557.257529792743 1:60.4033 2:53.1076 3:87.8737 
464.2939126750923 1:59.7284 2:52.9055 3:87.8358 
1000.0 1:59.9394 2:52.7513 3:88.3367 
1000.0 1:60.1529 2:52.5804 3:88.9695 
1000.0 1:60.0604 2:52.7908 3:88.6433 
1000.0 1:59.9219 2:52.4274 3:88.7445 
1000.0 1:59.9219 2:52.4274 3:88.7445 
468.6227531174845 1:60.0248 2:52.9095 3:88.9546 
819.6434386212387 1:58.9143 2:52.7102 3:88.5926 
278.5597671613629 1:59.0957 2:52.9146 3:88.4408 
1000.0 1:59.2789 2:52.2668 3:88.6129 
1000.0 1:59.3673 2:52.3165 3:88.8213 
1000.0 1:59.0668 2:52.3702 3:88.4271 
1000.0 1:58.837 2:52.3702 3:88.4251 
144.4163798151947 1:58.3156 2:52.2479 3:88.418 
1000.0 1:59.1094 2:52.2487 3:88.3953 
669.2196043199177 1:59.2547 2:50.8427 3:87.8859 
226.04653184044474 1:58.5232 2:50.9382 3:88.0796 
1000.0 1:59.0717 2:50.4253 3:87.6939 
1000.0 1:59.3241 2:50.4253 3:87.1011 
1000.0 1:59.5617 2:50.3375 3:87.0995 
945.7264590282452 1:59.3816 2:50.9437 3:87.0233 
34.08119841583425 1:58.8568 2:50.9267 3:87.5927 
57.36616577782269 1:58.8568 2:50.9267 3:87.5927 
827.0788320110939 1:58.963 2:50.9607 3:86.9793 
1000.0 1:58.963 2:51.0194 3:87.2874 
896.2656007672201 1:59.1507 2:50.7599 3:86.7902 
1000.0 1:59.1507 2:50.7599 3:86.7902 
1000.0 1:58.5196 2:51.7337 3:84.9012 
-260.10246715238685 1:57.8557 2:46.7753 3:77.2998 
-1000.0 1:58.5529 2:46.7753 3:77.2998 
-145.268092430908 1:58.4397 2:47.327 3:76.9388 
-1000.0 1:54.8963 2:46.7779 3:77.3299 
-1000.0 1:54.8868 2:46.529 3:77.1784 
-1000.0 1:55.5297 2:46.835 3:77.9269 
-1000.0 1:56.7132 2:47.3404 3:77.5707 
-1000.0 1:58.4052 2:50.4911 3:81.3749 
-94.43927644732581 1:55.9082 2:46.6282 3:75.1066 
-1000.0 1:58.4011 2:48.5209 3:80.9952 
-569.9245587679577 1:58.8131 2:49.0467 3:82.0469 
-1000.0 1:59.1711 2:49.7026 3:82.7422 
-1000.0 1:59.1711 2:49.7026 3:82.7422 
-1000.0 1:58.3616 2:50.7175 3:83.7733 
-1000.0 1:58.2055 2:50.7528 3:84.0217 
-1000.0 1:59.1404 2:49.5804 3:84.3856 
-1000.0 1:59.1039 2:49.86 3:84.6297 
-1000.0 1:58.9611 2:49.8078 3:84.4013 
-1000.0 1:59.4532 2:50.6885 3:84.6934 
-1000.0 1:59.8428 2:50.8534 3:84.4711 
-1000.0 1:60.0535 2:52.0097 3:84.7469 
-1000.0 1:60.1535 2:52.0097 3:84.4956 
-1000.0 1:59.6823 2:51.3004 3:84.1267 
-1000.0 1:59.7496 2:51.5114 3:84.1722 
-1000.0 1:59.7496 2:51.5114 3:84.1383 
-1000.0 1:59.7031 2:51.0661 3:84.5424 
-1000.0 1:59.3951 2:50.7967 3:84.8587 
-1000.0 1:59.2328 2:49.3141 3:84.5881 
-1000.0 1:59.9573 2:49.5265 3:84.6634 
-1000.0 1:59.7933 2:49.9123 3:84.2105 
-1000.0 1:59.7933 2:49.9123 3:84.2105 
-1000.0 1:59.7576 2:50.0878 3:84.0844 
-1000.0 1:59.7537 2:50.5531 3:84.0994 
-1000.0 1:59.7504 2:50.4212 3:84.0771 
-1000.0 1:59.753 2:50.8593 3:84.3316 
-1000.0 1:60.5038 2:50.8593 3:84.9273 
-1000.0 1:60.3544 2:50.456 3:84.9375 
-1000.0 1:60.4044 2:50.456 3:84.9375 
-1000.0 1:60.3513 2:50.377 3:84.4644 
-1000.0 1:60.3331 2:50.5248 3:85.0847 
-1000.0 1:60.1611 2:49.7204 3:85.1507 
-1000.0 1:60.1325 2:49.6676 3:85.0178 
-1000.0 1:58.794 2:50.9619 3:84.2516 
-1000.0 1:58.3363 2:51.3981 3:84.6673 
-1000.0 1:58.6879 2:52.5728 3:84.87 
-1000.0 1:58.6879 2:52.5728 3:84.87 
-1000.0 1:58.8498 2:51.993 3:84.8362 
-1000.0 1:58.8078 2:51.6946 3:85.0582 
-1000.0 1:58.8078 2:51.6946 3:85.0582 
-1000.0 1:59.7903 2:51.7489 3:84.7844 
-1000.0 1:59.7619 2:51.7235 3:84.8352 
-1000.0 1:59.8722 2:51.5125 3:84.8183 
-227.59038719240692 1:59.753 2:48.8495 3:81.1767 
-1000.0 1:60.5075 2:51.5178 3:86.625 
-1000.0 1:61.0009 2:51.5178 3:86.625 
-1000.0 1:61.0009 2:51.5252 3:86.5911 
-1000.0 1:60.875 2:52.8618 3:87.6939 
-211.12419348441662 1:60.5568 2:54.6211 3:88.5825 
-222.31686111494378 1:60.3929 2:54.4475 3:88.9716 
-1000.0 1:60.5541 2:54.4475 3:89.3153 
-1000.0 1:60.3104 2:53.7926 3:89.8918 
-1000.0 1:58.768 2:53.1458 3:88.5332 
-1000.0 1:58.9397 2:52.898 3:88.4244 
-1000.0 1:59.5665 2:52.898 3:88.4244 
-1000.0 1:59.517 2:52.6444 3:88.2433 
-1000.0 1:59.7728 2:52.0524 3:88.2791 
-1000.0 1:60.2412 2:51.9564 3:87.1001 
-1000.0 1:60.2412 2:51.9564 3:87.1001 
-1000.0 1:59.6366 2:52.8413 3:86.9756 
-1000.0 1:59.4114 2:50.8607 3:87.462 
-1000.0 1:59.6164 2:51.3391 3:87.2847 
-1000.0 1:59.8143 2:52.2357 3:88.2383 
-1000.0 1:60.0143 2:52.2049 3:88.0723 
-1000.0 1:60.3393 2:51.9625 3:88.0615 
-1000.0 1:60.282 2:52.9136 3:87.9622 
-1000.0 1:59.7284 2:52.9055 3:87.8358 
-1000.0 1:60.1427 2:52.5421 3:88.5835 
-1000.0 1:60.5774 2:52.2305 3:88.5835 
-1000.0 1:60.1212 2:52.6115 3:88.8345 
-1000.0 1:60.2637 2:52.2487 3:88.6129 
-1000.0 1:60.2637 2:53.1158 3:88.1479 
-952.6426696886825 1:60.2093 2:52.3752 3:88.8383 
-112.37027192621397 1:59.929 2:52.3752 3:89.2749 
-1000.0 1:59.6746 2:52.9146 3:88.8983 
-1000.0 1:59.6746 2:52.9146 3:88.8983 
-1000.0 1:59.547 2:52.638 3:88.57 
-1000.0 1:59.3196 2:52.8135 3:88.1001 
-993.1919632325782 1:59.008 2:52.1981 3:88.7143 
-398.85215514822414 1:59.008 2:52.1981 3:88.7143 
-1000.0 1:59.1094 2:52.2487 3:88.3953 
-1000.0 1:59.1094 2:52.2487 3:88.5005 
-671.2099406596798 1:58.7383 2:51.8917 3:88.1867 
-1000.0 1:59.05 2:51.0679 3:88.0351 
-1000.0 1:59.0717 2:50.625 3:87.6939 
-140.58955866768403 1:59.0717 2:50.4253 3:87.6939 
-1000.0 1:59.0097 2:50.4935 3:87.4178 
-812.3635308761436 1:59.4136 2:50.3375 3:87.5253 
-1000.0 1:58.963 2:50.9607 3:86.9793 
-1000.0 1:59.1689 2:50.9607 3:87.2197 
-1000.0 1:59.1689 2:51.1157 3:87.2197 
-1000.0 1:59.1689 2:51.1157 3:87.2197 
-639.2810500808928 1:59.37 2:50.2334 3:87.1169 
-1000.0 1:59.9752 2:50.8296 3:87.0826 
-1000.0 1:59.1507 2:50.7599 3:86.7902 
-1000.0 1:59.1507 2:50.7599 3:86.7902 
